<?xml version="1.0"?>
<opencv_storage>
<cascade>
  <stageType>BOOST</stageType>
  <featureType>HAAR</featureType>
  <height>24</height>
  <width>24</width>
  <stageParams>
    <boostType>GAB</boostType>
    <minHitRate>9.9500000476837158e-01</minHitRate>
    <maxFalseAlarm>5.0000000000000000e-01</maxFalseAlarm>
    <weightTrimRate>9.4999999999999996e-01</weightTrimRate>
    <maxDepth>1</maxDepth>
    <maxWeakCount>100</maxWeakCount></stageParams>
  <featureParams>
    <maxCatCount>0</maxCatCount>
    <featSize>1</featSize>
    <mode>BASIC</mode></featureParams>
  <stageNum>14</stageNum>
  <stages>
    <!-- stage 0 -->
    <_>
      <maxWeakCount>2</maxWeakCount>
      <stageThreshold>-4.8845551908016205e-02</stageThreshold>
      <weakClassifiers>
        <_>
          <internalNodes>
            0 -1 32 -3.2529123127460480e-02</internalNodes>
          <leafValues>
            9.2000001668930054e-01 -9.7979795932769775e-01</leafValues></_>
        <_>
          <internalNodes>
            0 -1 19 -7.9585745930671692e-02</internalNodes>
          <leafValues>
            9.3095242977142334e-01 -9.6191227436065674e-01</leafValues></_></weakClassifiers></_>
    <!-- stage 1 -->
    <_>
      <maxWeakCount>3</maxWeakCount>
      <stageThreshold>-7.9914575815200806e-01</stageThreshold>
      <weakClassifiers>
        <_>
          <internalNodes>
            0 -1 20 -3.6173380911350250e-02</internalNodes>
          <leafValues>
            1. -9.2307692766189575e-01</leafValues></_>
        <_>
          <internalNodes>
            0 -1 23 -2.7917359024286270e-02</internalNodes>
          <leafValues>
            9.3321824073791504e-01 -8.2983833551406860e-01</leafValues></_>
        <_>
          <internalNodes>
            0 -1 2 -2.7777820825576782e-02</internalNodes>
          <leafValues>
            9.5376950502395630e-01 -7.4685728549957275e-01</leafValues></_></weakClassifiers></_>
    <!-- stage 2 -->
    <_>
      <maxWeakCount>3</maxWeakCount>
      <stageThreshold>-1.1790008544921875e+00</stageThreshold>
      <weakClassifiers>
        <_>
          <internalNodes>
            0 -1 28 -4.2744122445583344e-02</internalNodes>
          <leafValues>
            8.9999997615814209e-01 -7.9816514253616333e-01</leafValues></_>
        <_>
          <internalNodes>
            0 -1 16 1.2830993160605431e-02</internalNodes>
          <leafValues>
            -8.5377722978591919e-01 5.5445688962936401e-01</leafValues></_>
        <_>
          <internalNodes>
            0 -1 33 2.4240445054601878e-04</internalNodes>
          <leafValues>
            -1. 4.7294157743453979e-01</leafValues></_></weakClassifiers></_>
    <!-- stage 3 -->
    <_>
      <maxWeakCount>2</maxWeakCount>
      <stageThreshold>-2.0746707916259766e-01</stageThreshold>
      <weakClassifiers>
        <_>
          <internalNodes>
            0 -1 21 -1.4899099245667458e-02</internalNodes>
          <leafValues>
            7.2549021244049072e-01 -8.9795917272567749e-01</leafValues></_>
        <_>
          <internalNodes>
            0 -1 36 -5.0432013813406229e-04</internalNodes>
          <leafValues>
            6.9049209356307983e-01 -9.0133810043334961e-01</leafValues></_></weakClassifiers></_>
    <!-- stage 4 -->
    <_>
      <maxWeakCount>3</maxWeakCount>
      <stageThreshold>-1.1293184757232666e+00</stageThreshold>
      <weakClassifiers>
        <_>
          <internalNodes>
            0 -1 15 3.1061857938766479e-02</internalNodes>
          <leafValues>
            -7.6785713434219360e-01 9.4594591856002808e-01</leafValues></_>
        <_>
          <internalNodes>
            0 -1 29 -2.4203084409236908e-02</internalNodes>
          <leafValues>
            -8.6392837762832642e-01 6.4771234989166260e-01</leafValues></_>
        <_>
          <internalNodes>
            0 -1 14 2.2174611687660217e-02</internalNodes>
          <leafValues>
            -8.9621937274932861e-01 5.0246703624725342e-01</leafValues></_></weakClassifiers></_>
    <!-- stage 5 -->
    <_>
      <maxWeakCount>2</maxWeakCount>
      <stageThreshold>-4.1735884547233582e-01</stageThreshold>
      <weakClassifiers>
        <_>
          <internalNodes>
            0 -1 18 6.0448218137025833e-03</internalNodes>
          <leafValues>
            -8.4158414602279663e-01 7.0833331346511841e-01</leafValues></_>
        <_>
          <internalNodes>
            0 -1 3 1.8719378858804703e-02</internalNodes>
          <leafValues>
            -9.5077419281005859e-01 4.2422530055046082e-01</leafValues></_></weakClassifiers></_>
    <!-- stage 6 -->
    <_>
      <maxWeakCount>3</maxWeakCount>
      <stageThreshold>-9.3004488945007324e-01</stageThreshold>
      <weakClassifiers>
        <_>
          <internalNodes>
            0 -1 27 -4.5231834053993225e-02</internalNodes>
          <leafValues>
            7.0212763547897339e-01 -8.2352942228317261e-01</leafValues></_>
        <_>
          <internalNodes>
            0 -1 31 -2.0094759762287140e-02</internalNodes>
          <leafValues>
            -7.9571795463562012e-01 5.9968841075897217e-01</leafValues></_>
        <_>
          <internalNodes>
            0 -1 13 -1.7812212929129601e-02</internalNodes>
          <leafValues>
            6.8920248746871948e-01 -6.8372571468353271e-01</leafValues></_></weakClassifiers></_>
    <!-- stage 7 -->
    <_>
      <maxWeakCount>3</maxWeakCount>
      <stageThreshold>-8.8849097490310669e-01</stageThreshold>
      <weakClassifiers>
        <_>
          <internalNodes>
            0 -1 8 3.1142666935920715e-02</internalNodes>
          <leafValues>
            -6.9491523504257202e-01 1.</leafValues></_>
        <_>
          <internalNodes>
            0 -1 24 -1.6242521815001965e-03</internalNodes>
          <leafValues>
            4.8909258842468262e-01 -8.7115520238876343e-01</leafValues></_>
        <_>
          <internalNodes>
            0 -1 37 -7.5798679608851671e-04</internalNodes>
          <leafValues>
            7.0869898796081543e-01 -6.8266826868057251e-01</leafValues></_></weakClassifiers></_>
    <!-- stage 8 -->
    <_>
      <maxWeakCount>2</maxWeakCount>
      <stageThreshold>-3.5788753628730774e-01</stageThreshold>
      <weakClassifiers>
        <_>
          <internalNodes>
            0 -1 9 8.8452324271202087e-03</internalNodes>
          <leafValues>
            -7.4311923980712891e-01 7.5000000000000000e-01</leafValues></_>
        <_>
          <internalNodes>
            0 -1 25 2.8837996069341898e-04</internalNodes>
          <leafValues>
            3.8523173332214355e-01 -9.7379463911056519e-01</leafValues></_></weakClassifiers></_>
    <!-- stage 9 -->
    <_>
      <maxWeakCount>2</maxWeakCount>
      <stageThreshold>-2.0338732004165649e-01</stageThreshold>
      <weakClassifiers>
        <_>
          <internalNodes>
            0 -1 5 -4.6913433820009232e-02</internalNodes>
          <leafValues>
            9.3750000000000000e-01 -6.9230771064758301e-01</leafValues></_>
        <_>
          <internalNodes>
            0 -1 1 1.8321268726140261e-03</internalNodes>
          <leafValues>
            -1. 4.8892036080360413e-01</leafValues></_></weakClassifiers></_>
    <!-- stage 10 -->
    <_>
      <maxWeakCount>4</maxWeakCount>
      <stageThreshold>-4.5404580235481262e-01</stageThreshold>
      <weakClassifiers>
        <_>
          <internalNodes>
            0 -1 28 -4.5818455517292023e-02</internalNodes>
          <leafValues>
            6.7441862821578979e-01 -7.5471699237823486e-01</leafValues></_>
        <_>
          <internalNodes>
            0 -1 17 -1.5502048656344414e-02</internalNodes>
          <leafValues>
            5.5887603759765625e-01 -8.3271300792694092e-01</leafValues></_>
        <_>
          <internalNodes>
            0 -1 35 -5.1901298575103283e-03</internalNodes>
          <leafValues>
            5.9291833639144897e-01 -8.0283319950103760e-01</leafValues></_>
        <_>
          <internalNodes>
            0 -1 34 -3.2647317275404930e-03</internalNodes>
          <leafValues>
            5.4462838172912598e-01 -7.1923989057540894e-01</leafValues></_></weakClassifiers></_>
    <!-- stage 11 -->
    <_>
      <maxWeakCount>3</maxWeakCount>
      <stageThreshold>-7.9896074533462524e-01</stageThreshold>
      <weakClassifiers>
        <_>
          <internalNodes>
            0 -1 12 1.0490287095308304e-02</internalNodes>
          <leafValues>
            -6.9911503791809082e-01 7.7777779102325439e-01</leafValues></_>
        <_>
          <internalNodes>
            0 -1 4 -3.0661679338663816e-03</internalNodes>
          <leafValues>
            7.5620388984680176e-01 -5.9407854080200195e-01</leafValues></_>
        <_>
          <internalNodes>
            0 -1 10 -2.2818646393716335e-03</internalNodes>
          <leafValues>
            4.9423283338546753e-01 -9.6662342548370361e-01</leafValues></_></weakClassifiers></_>
    <!-- stage 12 -->
    <_>
      <maxWeakCount>4</maxWeakCount>
      <stageThreshold>-8.1764370203018188e-01</stageThreshold>
      <weakClassifiers>
        <_>
          <internalNodes>
            0 -1 30 4.2438767850399017e-02</internalNodes>
          <leafValues>
            -8.2978725433349609e-01 4.9090909957885742e-01</leafValues></_>
        <_>
          <internalNodes>
            0 -1 6 4.4938153587281704e-03</internalNodes>
          <leafValues>
            -6.9488096237182617e-01 5.4113823175430298e-01</leafValues></_>
        <_>
          <internalNodes>
            0 -1 26 -1.9543243572115898e-02</internalNodes>
          <leafValues>
            4.3460097908973694e-01 -8.8713288307189941e-01</leafValues></_>
        <_>
          <internalNodes>
            0 -1 0 1.1988375335931778e-02</internalNodes>
          <leafValues>
            3.5813820362091064e-01 -8.9712023735046387e-01</leafValues></_></weakClassifiers></_>
    <!-- stage 13 -->
    <_>
      <maxWeakCount>3</maxWeakCount>
      <stageThreshold>-5.9431368112564087e-01</stageThreshold>
      <weakClassifiers>
        <_>
          <internalNodes>
            0 -1 7 2.7305040508508682e-02</internalNodes>
          <leafValues>
            -7.5000000000000000e-01 6.0000002384185791e-01</leafValues></_>
        <_>
          <internalNodes>
            0 -1 22 3.7089169025421143e-02</internalNodes>
          <leafValues>
            -5.8058202266693115e-01 6.4997655153274536e-01</leafValues></_>
        <_>
          <internalNodes>
            0 -1 11 -2.7195163071155548e-02</internalNodes>
          <leafValues>
            8.7753432989120483e-01 -4.9429020285606384e-01</leafValues></_></weakClassifiers></_></stages>
  <features>
    <_>
      <rects>
        <_>
          0 10 22 4 -1.</_>
        <_>
          0 12 22 2 2.</_></rects>
      <tilted>0</tilted></_>
    <_>
      <rects>
        <_>
          0 11 12 4 -1.</_>
        <_>
          0 11 6 2 2.</_>
        <_>
          6 13 6 2 2.</_></rects>
      <tilted>0</tilted></_>
    <_>
      <rects>
        <_>
          1 3 12 6 -1.</_>
        <_>
          1 3 6 3 2.</_>
        <_>
          7 6 6 3 2.</_></rects>
      <tilted>0</tilted></_>
    <_>
      <rects>
        <_>
          2 10 21 8 -1.</_>
        <_>
          2 14 21 4 2.</_></rects>
      <tilted>0</tilted></_>
    <_>
      <rects>
        <_>
          3 5 4 4 -1.</_>
        <_>
          3 5 2 2 2.</_>
        <_>
          5 7 2 2 2.</_></rects>
      <tilted>0</tilted></_>
    <_>
      <rects>
        <_>
          3 7 6 7 -1.</_>
        <_>
          6 7 3 7 2.</_></rects>
      <tilted>0</tilted></_>
    <_>
      <rects>
        <_>
          5 2 4 4 -1.</_>
        <_>
          5 4 4 2 2.</_></rects>
      <tilted>0</tilted></_>
    <_>
      <rects>
        <_>
          5 4 4 20 -1.</_>
        <_>
          5 4 2 10 2.</_>
        <_>
          7 14 2 10 2.</_></rects>
      <tilted>0</tilted></_>
    <_>
      <rects>
        <_>
          7 4 4 10 -1.</_>
        <_>
          7 4 2 5 2.</_>
        <_>
          9 9 2 5 2.</_></rects>
      <tilted>0</tilted></_>
    <_>
      <rects>
        <_>
          7 7 2 10 -1.</_>
        <_>
          7 7 1 5 2.</_>
        <_>
          8 12 1 5 2.</_></rects>
      <tilted>0</tilted></_>
    <_>
      <rects>
        <_>
          7 19 12 2 -1.</_>
        <_>
          7 20 12 1 2.</_></rects>
      <tilted>0</tilted></_>
    <_>
      <rects>
        <_>
          7 20 13 4 -1.</_>
        <_>
          7 22 13 2 2.</_></rects>
      <tilted>0</tilted></_>
    <_>
      <rects>
        <_>
          8 4 2 10 -1.</_>
        <_>
          8 4 1 5 2.</_>
        <_>
          9 9 1 5 2.</_></rects>
      <tilted>0</tilted></_>
    <_>
      <rects>
        <_>
          8 4 6 4 -1.</_>
        <_>
          8 6 6 2 2.</_></rects>
      <tilted>0</tilted></_>
    <_>
      <rects>
        <_>
          8 4 16 6 -1.</_>
        <_>
          8 4 8 3 2.</_>
        <_>
          16 7 8 3 2.</_></rects>
      <tilted>0</tilted></_>
    <_>
      <rects>
        <_>
          8 6 4 11 -1.</_>
        <_>
          10 6 2 11 2.</_></rects>
      <tilted>0</tilted></_>
    <_>
      <rects>
        <_>
          8 8 4 16 -1.</_>
        <_>
          10 8 2 16 2.</_></rects>
      <tilted>0</tilted></_>
    <_>
      <rects>
        <_>
          8 19 11 4 -1.</_>
        <_>
          8 21 11 2 2.</_></rects>
      <tilted>0</tilted></_>
    <_>
      <rects>
        <_>
          9 8 2 9 -1.</_>
        <_>
          10 8 1 9 2.</_></rects>
      <tilted>0</tilted></_>
    <_>
      <rects>
        <_>
          10 7 12 14 -1.</_>
        <_>
          10 7 6 7 2.</_>
        <_>
          16 14 6 7 2.</_></rects>
      <tilted>0</tilted></_>
    <_>
      <rects>
        <_>
          11 5 6 10 -1.</_>
        <_>
          11 5 3 5 2.</_>
        <_>
          14 10 3 5 2.</_></rects>
      <tilted>0</tilted></_>
    <_>
      <rects>
        <_>
          11 8 4 7 -1.</_>
        <_>
          13 8 2 7 2.</_></rects>
      <tilted>0</tilted></_>
    <_>
      <rects>
        <_>
          12 3 8 6 -1.</_>
        <_>
          12 3 4 3 2.</_>
        <_>
          16 6 4 3 2.</_></rects>
      <tilted>0</tilted></_>
    <_>
      <rects>
        <_>
          12 7 6 8 -1.</_>
        <_>
          12 7 3 4 2.</_>
        <_>
          15 11 3 4 2.</_></rects>
      <tilted>0</tilted></_>
    <_>
      <rects>
        <_>
          12 10 1 14 -1.</_>
        <_>
          12 17 1 7 2.</_></rects>
      <tilted>0</tilted></_>
    <_>
      <rects>
        <_>
          12 12 1 4 -1.</_>
        <_>
          12 14 1 2 2.</_></rects>
      <tilted>0</tilted></_>
    <_>
      <rects>
        <_>
          12 13 6 9 -1.</_>
        <_>
          15 13 3 9 2.</_></rects>
      <tilted>0</tilted></_>
    <_>
      <rects>
        <_>
          13 5 4 12 -1.</_>
        <_>
          13 5 2 6 2.</_>
        <_>
          15 11 2 6 2.</_></rects>
      <tilted>0</tilted></_>
    <_>
      <rects>
        <_>
          13 6 4 10 -1.</_>
        <_>
          13 6 2 5 2.</_>
        <_>
          15 11 2 5 2.</_></rects>
      <tilted>0</tilted></_>
    <_>
      <rects>
        <_>
          13 7 9 3 -1.</_>
        <_>
          16 7 3 3 2.</_></rects>
      <tilted>0</tilted></_>
    <_>
      <rects>
        <_>
          14 8 6 6 -1.</_>
        <_>
          17 8 3 6 2.</_></rects>
      <tilted>0</tilted></_>
    <_>
      <rects>
        <_>
          14 9 9 3 -1.</_>
        <_>
          17 9 3 3 2.</_></rects>
      <tilted>0</tilted></_>
    <_>
      <rects>
        <_>
          14 9 6 12 -1.</_>
        <_>
          14 9 3 6 2.</_>
        <_>
          17 15 3 6 2.</_></rects>
      <tilted>0</tilted></_>
    <_>
      <rects>
        <_>
          15 10 8 2 -1.</_>
        <_>
          15 10 4 1 2.</_>
        <_>
          19 11 4 1 2.</_></rects>
      <tilted>0</tilted></_>
    <_>
      <rects>
        <_>
          17 5 4 3 -1.</_>
        <_>
          19 5 2 3 2.</_></rects>
      <tilted>0</tilted></_>
    <_>
      <rects>
        <_>
          17 10 2 14 -1.</_>
        <_>
          17 10 1 7 2.</_>
        <_>
          18 17 1 7 2.</_></rects>
      <tilted>0</tilted></_>
    <_>
      <rects>
        <_>
          17 19 2 2 -1.</_>
        <_>
          17 20 2 1 2.</_></rects>
      <tilted>0</tilted></_>
    <_>
      <rects>
        <_>
          18 16 4 1 -1.</_>
        <_>
          20 16 2 1 2.</_></rects>
      <tilted>0</tilted></_></features></cascade>
</opencv_storage>
