<?xml version="1.0"?>
<opencv_storage>
<cascade>
  <stageType>BOOST</stageType>
  <featureType>HAAR</featureType>
  <height>24</height>
  <width>24</width>
  <stageParams>
    <boostType>GAB</boostType>
    <minHitRate>9.9500000476837158e-01</minHitRate>
    <maxFalseAlarm>5.0000000000000000e-01</maxFalseAlarm>
    <weightTrimRate>9.4999999999999996e-01</weightTrimRate>
    <maxDepth>1</maxDepth>
    <maxWeakCount>100</maxWeakCount></stageParams>
  <featureParams>
    <maxCatCount>0</maxCatCount>
    <featSize>1</featSize>
    <mode>BASIC</mode></featureParams>
  <stageNum>11</stageNum>
  <stages>
    <!-- stage 0 -->
    <_>
      <maxWeakCount>3</maxWeakCount>
      <stageThreshold>-6.5384644269943237e-01</stageThreshold>
      <weakClassifiers>
        <_>
          <internalNodes>
            0 -1 8 2.5672290474176407e-02</internalNodes>
          <leafValues>
            -8.2524269819259644e-01 8.5542166233062744e-01</leafValues></_>
        <_>
          <internalNodes>
            0 -1 29 -2.2667158395051956e-02</internalNodes>
          <leafValues>
            9.7888350486755371e-01 -6.3573926687240601e-01</leafValues></_>
        <_>
          <internalNodes>
            0 -1 19 -4.4924937188625336e-02</internalNodes>
          <leafValues>
            8.0713552236557007e-01 -6.7949360609054565e-01</leafValues></_></weakClassifiers></_>
    <!-- stage 1 -->
    <_>
      <maxWeakCount>3</maxWeakCount>
      <stageThreshold>-6.5656745433807373e-01</stageThreshold>
      <weakClassifiers>
        <_>
          <internalNodes>
            0 -1 30 -6.0029393061995506e-03</internalNodes>
          <leafValues>
            9.4029849767684937e-01 -6.4705884456634521e-01</leafValues></_>
        <_>
          <internalNodes>
            0 -1 2 1.9229937344789505e-02</internalNodes>
          <leafValues>
            -7.0687478780746460e-01 7.1801137924194336e-01</leafValues></_>
        <_>
          <internalNodes>
            0 -1 35 6.1210193671286106e-03</internalNodes>
          <leafValues>
            -7.0162713527679443e-01 6.9736611843109131e-01</leafValues></_></weakClassifiers></_>
    <!-- stage 2 -->
    <_>
      <maxWeakCount>2</maxWeakCount>
      <stageThreshold>-1.6543883085250854e-01</stageThreshold>
      <weakClassifiers>
        <_>
          <internalNodes>
            0 -1 26 -2.7275586500763893e-02</internalNodes>
          <leafValues>
            8.9041095972061157e-01 -6.9911503791809082e-01</leafValues></_>
        <_>
          <internalNodes>
            0 -1 16 2.0463503897190094e-03</internalNodes>
          <leafValues>
            -9.7893989086151123e-01 5.3367620706558228e-01</leafValues></_></weakClassifiers></_>
    <!-- stage 3 -->
    <_>
      <maxWeakCount>4</maxWeakCount>
      <stageThreshold>-7.0895117521286011e-01</stageThreshold>
      <weakClassifiers>
        <_>
          <internalNodes>
            0 -1 34 -2.7727439999580383e-02</internalNodes>
          <leafValues>
            9.3846154212951660e-01 -6.1983472108840942e-01</leafValues></_>
        <_>
          <internalNodes>
            0 -1 14 1.4200439676642418e-02</internalNodes>
          <leafValues>
            -4.6670138835906982e-01 8.9246517419815063e-01</leafValues></_>
        <_>
          <internalNodes>
            0 -1 3 -2.4670697748661041e-02</internalNodes>
          <leafValues>
            8.5745018720626831e-01 -4.0706783533096313e-01</leafValues></_>
        <_>
          <internalNodes>
            0 -1 20 7.3932493105530739e-03</internalNodes>
          <leafValues>
            -4.7986525297164917e-01 7.9437536001205444e-01</leafValues></_></weakClassifiers></_>
    <!-- stage 4 -->
    <_>
      <maxWeakCount>3</maxWeakCount>
      <stageThreshold>-4.0129998326301575e-01</stageThreshold>
      <weakClassifiers>
        <_>
          <internalNodes>
            0 -1 9 3.4396126866340637e-02</internalNodes>
          <leafValues>
            -5.1937985420227051e-01 9.2982459068298340e-01</leafValues></_>
        <_>
          <internalNodes>
            0 -1 31 3.8003899157047272e-02</internalNodes>
          <leafValues>
            -4.7491019964218140e-01 8.1700468063354492e-01</leafValues></_>
        <_>
          <internalNodes>
            0 -1 37 -7.7918084571138024e-04</internalNodes>
          <leafValues>
            5.9299004077911377e-01 -6.6865235567092896e-01</leafValues></_></weakClassifiers></_>
    <!-- stage 5 -->
    <_>
      <maxWeakCount>3</maxWeakCount>
      <stageThreshold>-4.4845929741859436e-01</stageThreshold>
      <weakClassifiers>
        <_>
          <internalNodes>
            0 -1 25 -6.4401039853692055e-03</internalNodes>
          <leafValues>
            7.9710143804550171e-01 -5.8974361419677734e-01</leafValues></_>
        <_>
          <internalNodes>
            0 -1 5 -2.0896740257740021e-02</internalNodes>
          <leafValues>
            7.7171021699905396e-01 -4.3716335296630859e-01</leafValues></_>
        <_>
          <internalNodes>
            0 -1 36 -3.8021868094801903e-03</internalNodes>
          <leafValues>
            6.2425392866134644e-01 -6.3042593002319336e-01</leafValues></_></weakClassifiers></_>
    <!-- stage 6 -->
    <_>
      <maxWeakCount>3</maxWeakCount>
      <stageThreshold>-2.4642175436019897e-01</stageThreshold>
      <weakClassifiers>
        <_>
          <internalNodes>
            0 -1 18 -8.7908897548913956e-03</internalNodes>
          <leafValues>
            8.3050847053527832e-01 -4.9606299400329590e-01</leafValues></_>
        <_>
          <internalNodes>
            0 -1 1 -5.3354434669017792e-02</internalNodes>
          <leafValues>
            -4.3605089187622070e-01 8.2492232322692871e-01</leafValues></_>
        <_>
          <internalNodes>
            0 -1 24 2.0009215921163559e-02</internalNodes>
          <leafValues>
            -5.7528108358383179e-01 7.0781826972961426e-01</leafValues></_></weakClassifiers></_>
    <!-- stage 7 -->
    <_>
      <maxWeakCount>5</maxWeakCount>
      <stageThreshold>-7.7757483720779419e-01</stageThreshold>
      <weakClassifiers>
        <_>
          <internalNodes>
            0 -1 21 3.4976731985807419e-02</internalNodes>
          <leafValues>
            -5.1999998092651367e-01 8.3606559038162231e-01</leafValues></_>
        <_>
          <internalNodes>
            0 -1 23 -1.6707894392311573e-03</internalNodes>
          <leafValues>
            4.9546474218368530e-01 -8.0977946519851685e-01</leafValues></_>
        <_>
          <internalNodes>
            0 -1 0 5.5820643901824951e-02</internalNodes>
          <leafValues>
            -5.9297627210617065e-01 7.0578378438949585e-01</leafValues></_>
        <_>
          <internalNodes>
            0 -1 6 3.5259243100881577e-02</internalNodes>
          <leafValues>
            -6.1969053745269775e-01 7.0270812511444092e-01</leafValues></_>
        <_>
          <internalNodes>
            0 -1 7 5.7945670560002327e-03</internalNodes>
          <leafValues>
            4.6611145138740540e-01 -8.0487090349197388e-01</leafValues></_></weakClassifiers></_>
    <!-- stage 8 -->
    <_>
      <maxWeakCount>4</maxWeakCount>
      <stageThreshold>-2.9006221890449524e-01</stageThreshold>
      <weakClassifiers>
        <_>
          <internalNodes>
            0 -1 15 -2.0206145942211151e-02</internalNodes>
          <leafValues>
            7.0149254798889160e-01 -5.1260507106781006e-01</leafValues></_>
        <_>
          <internalNodes>
            0 -1 32 -1.0411923751235008e-02</internalNodes>
          <leafValues>
            7.0974099636077881e-01 -4.1295209527015686e-01</leafValues></_>
        <_>
          <internalNodes>
            0 -1 38 -3.8180348929017782e-04</internalNodes>
          <leafValues>
            -8.0461978912353516e-01 3.9260885119438171e-01</leafValues></_>
        <_>
          <internalNodes>
            0 -1 11 -1.2235496193170547e-02</internalNodes>
          <leafValues>
            -8.7980699539184570e-01 3.3622625470161438e-01</leafValues></_></weakClassifiers></_>
    <!-- stage 9 -->
    <_>
      <maxWeakCount>6</maxWeakCount>
      <stageThreshold>-6.9265425205230713e-01</stageThreshold>
      <weakClassifiers>
        <_>
          <internalNodes>
            0 -1 22 1.4624113216996193e-02</internalNodes>
          <leafValues>
            -8.1333333253860474e-01 4.2342340946197510e-01</leafValues></_>
        <_>
          <internalNodes>
            0 -1 28 -2.3489754647016525e-02</internalNodes>
          <leafValues>
            8.1510078907012939e-01 -4.7827577590942383e-01</leafValues></_>
        <_>
          <internalNodes>
            0 -1 27 -6.8784411996603012e-03</internalNodes>
          <leafValues>
            8.9393669366836548e-01 -2.9909622669219971e-01</leafValues></_>
        <_>
          <internalNodes>
            0 -1 17 -1.2643289566040039e-01</internalNodes>
          <leafValues>
            -8.1953024864196777e-01 4.2646381258964539e-01</leafValues></_>
        <_>
          <internalNodes>
            0 -1 12 7.5629847124218941e-03</internalNodes>
          <leafValues>
            -3.6460471153259277e-01 8.3516991138458252e-01</leafValues></_>
        <_>
          <internalNodes>
            0 -1 4 2.0490519702434540e-02</internalNodes>
          <leafValues>
            -3.7902218103408813e-01 8.3619201183319092e-01</leafValues></_></weakClassifiers></_>
    <!-- stage 10 -->
    <_>
      <maxWeakCount>3</maxWeakCount>
      <stageThreshold>-8.6096767336130142e-03</stageThreshold>
      <weakClassifiers>
        <_>
          <internalNodes>
            0 -1 33 7.2367754764854908e-03</internalNodes>
          <leafValues>
            -5.9649121761322021e-01 7.5000000000000000e-01</leafValues></_>
        <_>
          <internalNodes>
            0 -1 13 -1.4053590595722198e-01</internalNodes>
          <leafValues>
            3.6269029974937439e-01 -9.2502307891845703e-01</leafValues></_>
        <_>
          <internalNodes>
            0 -1 10 2.6227742433547974e-02</internalNodes>
          <leafValues>
            2.2519123554229736e-01 -9.5545387268066406e-01</leafValues></_></weakClassifiers></_></stages>
  <features>
    <_>
      <rects>
        <_>
          0 13 12 9 -1.</_>
        <_>
          6 13 6 9 2.</_></rects>
      <tilted>0</tilted></_>
    <_>
      <rects>
        <_>
          0 18 24 4 -1.</_>
        <_>
          8 18 8 4 2.</_></rects>
      <tilted>0</tilted></_>
    <_>
      <rects>
        <_>
          1 10 14 6 -1.</_>
        <_>
          1 10 7 3 2.</_>
        <_>
          8 13 7 3 2.</_></rects>
      <tilted>0</tilted></_>
    <_>
      <rects>
        <_>
          1 19 16 4 -1.</_>
        <_>
          1 21 16 2 2.</_></rects>
      <tilted>0</tilted></_>
    <_>
      <rects>
        <_>
          2 10 6 6 -1.</_>
        <_>
          5 10 3 6 2.</_></rects>
      <tilted>0</tilted></_>
    <_>
      <rects>
        <_>
          5 2 6 10 -1.</_>
        <_>
          5 2 3 5 2.</_>
        <_>
          8 7 3 5 2.</_></rects>
      <tilted>0</tilted></_>
    <_>
      <rects>
        <_>
          5 7 8 10 -1.</_>
        <_>
          5 7 4 5 2.</_>
        <_>
          9 12 4 5 2.</_></rects>
      <tilted>0</tilted></_>
    <_>
      <rects>
        <_>
          5 11 14 1 -1.</_>
        <_>
          12 11 7 1 2.</_></rects>
      <tilted>0</tilted></_>
    <_>
      <rects>
        <_>
          5 12 8 8 -1.</_>
        <_>
          9 12 4 8 2.</_></rects>
      <tilted>0</tilted></_>
    <_>
      <rects>
        <_>
          6 4 4 18 -1.</_>
        <_>
          6 4 2 9 2.</_>
        <_>
          8 13 2 9 2.</_></rects>
      <tilted>0</tilted></_>
    <_>
      <rects>
        <_>
          6 10 12 6 -1.</_>
        <_>
          12 10 6 6 2.</_></rects>
      <tilted>0</tilted></_>
    <_>
      <rects>
        <_>
          7 5 8 11 -1.</_>
        <_>
          11 5 4 11 2.</_></rects>
      <tilted>0</tilted></_>
    <_>
      <rects>
        <_>
          7 7 2 8 -1.</_>
        <_>
          7 7 1 4 2.</_>
        <_>
          8 11 1 4 2.</_></rects>
      <tilted>0</tilted></_>
    <_>
      <rects>
        <_>
          8 6 14 9 -1.</_>
        <_>
          8 9 14 3 2.</_></rects>
      <tilted>0</tilted></_>
    <_>
      <rects>
        <_>
          8 9 4 5 -1.</_>
        <_>
          10 9 2 5 2.</_></rects>
      <tilted>0</tilted></_>
    <_>
      <rects>
        <_>
          8 9 4 12 -1.</_>
        <_>
          8 9 2 6 2.</_>
        <_>
          10 15 2 6 2.</_></rects>
      <tilted>0</tilted></_>
    <_>
      <rects>
        <_>
          8 12 8 4 -1.</_>
        <_>
          8 14 8 2 2.</_></rects>
      <tilted>0</tilted></_>
    <_>
      <rects>
        <_>
          8 15 7 9 -1.</_>
        <_>
          8 18 7 3 2.</_></rects>
      <tilted>0</tilted></_>
    <_>
      <rects>
        <_>
          9 1 1 8 -1.</_>
        <_>
          9 5 1 4 2.</_></rects>
      <tilted>0</tilted></_>
    <_>
      <rects>
        <_>
          10 7 12 14 -1.</_>
        <_>
          10 7 6 7 2.</_>
        <_>
          16 14 6 7 2.</_></rects>
      <tilted>0</tilted></_>
    <_>
      <rects>
        <_>
          11 8 3 4 -1.</_>
        <_>
          11 10 3 2 2.</_></rects>
      <tilted>0</tilted></_>
    <_>
      <rects>
        <_>
          11 11 6 12 -1.</_>
        <_>
          11 11 3 6 2.</_>
        <_>
          14 17 3 6 2.</_></rects>
      <tilted>0</tilted></_>
    <_>
      <rects>
        <_>
          11 11 6 8 -1.</_>
        <_>
          11 15 6 4 2.</_></rects>
      <tilted>0</tilted></_>
    <_>
      <rects>
        <_>
          11 16 1 8 -1.</_>
        <_>
          11 20 1 4 2.</_></rects>
      <tilted>0</tilted></_>
    <_>
      <rects>
        <_>
          12 3 8 6 -1.</_>
        <_>
          12 3 4 3 2.</_>
        <_>
          16 6 4 3 2.</_></rects>
      <tilted>0</tilted></_>
    <_>
      <rects>
        <_>
          12 7 2 6 -1.</_>
        <_>
          13 7 1 6 2.</_></rects>
      <tilted>0</tilted></_>
    <_>
      <rects>
        <_>
          12 7 6 8 -1.</_>
        <_>
          12 7 3 4 2.</_>
        <_>
          15 11 3 4 2.</_></rects>
      <tilted>0</tilted></_>
    <_>
      <rects>
        <_>
          12 8 2 6 -1.</_>
        <_>
          12 8 1 3 2.</_>
        <_>
          13 11 1 3 2.</_></rects>
      <tilted>0</tilted></_>
    <_>
      <rects>
        <_>
          12 8 4 6 -1.</_>
        <_>
          14 8 2 6 2.</_></rects>
      <tilted>0</tilted></_>
    <_>
      <rects>
        <_>
          13 6 4 10 -1.</_>
        <_>
          13 6 2 5 2.</_>
        <_>
          15 11 2 5 2.</_></rects>
      <tilted>0</tilted></_>
    <_>
      <rects>
        <_>
          13 10 2 6 -1.</_>
        <_>
          14 10 1 6 2.</_></rects>
      <tilted>0</tilted></_>
    <_>
      <rects>
        <_>
          14 3 6 10 -1.</_>
        <_>
          14 3 3 5 2.</_>
        <_>
          17 8 3 5 2.</_></rects>
      <tilted>0</tilted></_>
    <_>
      <rects>
        <_>
          14 4 2 12 -1.</_>
        <_>
          14 4 1 6 2.</_>
        <_>
          15 10 1 6 2.</_></rects>
      <tilted>0</tilted></_>
    <_>
      <rects>
        <_>
          15 5 2 8 -1.</_>
        <_>
          16 5 1 8 2.</_></rects>
      <tilted>0</tilted></_>
    <_>
      <rects>
        <_>
          15 9 4 12 -1.</_>
        <_>
          15 9 2 6 2.</_>
        <_>
          17 15 2 6 2.</_></rects>
      <tilted>0</tilted></_>
    <_>
      <rects>
        <_>
          16 7 6 8 -1.</_>
        <_>
          16 7 3 4 2.</_>
        <_>
          19 11 3 4 2.</_></rects>
      <tilted>0</tilted></_>
    <_>
      <rects>
        <_>
          17 7 6 4 -1.</_>
        <_>
          20 7 3 4 2.</_></rects>
      <tilted>0</tilted></_>
    <_>
      <rects>
        <_>
          17 18 1 4 -1.</_>
        <_>
          17 20 1 2 2.</_></rects>
      <tilted>0</tilted></_>
    <_>
      <rects>
        <_>
          19 8 1 4 -1.</_>
        <_>
          19 10 1 2 2.</_></rects>
      <tilted>0</tilted></_></features></cascade>
</opencv_storage>
