<?xml version="1.0"?>
<opencv_storage>
<cascade>
  <stageType>BOOST</stageType>
  <featureType>HAAR</featureType>
  <height>24</height>
  <width>24</width>
  <stageParams>
    <boostType>GAB</boostType>
    <minHitRate>9.9500000476837158e-01</minHitRate>
    <maxFalseAlarm>5.0000000000000000e-01</maxFalseAlarm>
    <weightTrimRate>9.4999999999999996e-01</weightTrimRate>
    <maxDepth>1</maxDepth>
    <maxWeakCount>100</maxWeakCount></stageParams>
  <featureParams>
    <maxCatCount>0</maxCatCount>
    <featSize>1</featSize>
    <mode>BASIC</mode></featureParams>
  <stageNum>15</stageNum>
  <stages>
    <!-- stage 0 -->
    <_>
      <maxWeakCount>2</maxWeakCount>
      <stageThreshold>-1.7744903266429901e-01</stageThreshold>
      <weakClassifiers>
        <_>
          <internalNodes>
            0 -1 6 1.8122885376214981e-02</internalNodes>
          <leafValues>
            -7.5000000000000000e-01 8.1250000000000000e-01</leafValues></_>
        <_>
          <internalNodes>
            0 -1 39 -1.0853246599435806e-01</internalNodes>
          <leafValues>
            5.7255095243453979e-01 -9.6176350116729736e-01</leafValues></_></weakClassifiers></_>
    <!-- stage 1 -->
    <_>
      <maxWeakCount>2</maxWeakCount>
      <stageThreshold>-1.5134844183921814e-01</stageThreshold>
      <weakClassifiers>
        <_>
          <internalNodes>
            0 -1 8 2.8668378945440054e-03</internalNodes>
          <leafValues>
            -8.2222223281860352e-01 6.7272728681564331e-01</leafValues></_>
        <_>
          <internalNodes>
            0 -1 11 3.3914281520992517e-03</internalNodes>
          <leafValues>
            -8.1387758255004883e-01 6.7087376117706299e-01</leafValues></_></weakClassifiers></_>
    <!-- stage 2 -->
    <_>
      <maxWeakCount>4</maxWeakCount>
      <stageThreshold>-4.2520576715469360e-01</stageThreshold>
      <weakClassifiers>
        <_>
          <internalNodes>
            0 -1 51 -4.2030625045299530e-03</internalNodes>
          <leafValues>
            6.4102566242218018e-01 -9.0361446142196655e-01</leafValues></_>
        <_>
          <internalNodes>
            0 -1 41 4.3258187361061573e-03</internalNodes>
          <leafValues>
            -7.6256448030471802e-01 6.6409444808959961e-01</leafValues></_>
        <_>
          <internalNodes>
            0 -1 2 1.1620041914284229e-02</internalNodes>
          <leafValues>
            -7.3377734422683716e-01 7.4710279703140259e-01</leafValues></_>
        <_>
          <internalNodes>
            0 -1 25 -2.1513691172003746e-03</internalNodes>
          <leafValues>
            5.4809153079986572e-01 -8.9346158504486084e-01</leafValues></_></weakClassifiers></_>
    <!-- stage 3 -->
    <_>
      <maxWeakCount>2</maxWeakCount>
      <stageThreshold>9.7844442352652550e-03</stageThreshold>
      <weakClassifiers>
        <_>
          <internalNodes>
            0 -1 55 -3.3270396292209625e-02</internalNodes>
          <leafValues>
            9.3750000000000000e-01 -4.4117647409439087e-01</leafValues></_>
        <_>
          <internalNodes>
            0 -1 14 -4.1883923113346100e-03</internalNodes>
          <leafValues>
            -9.2771553993225098e-01 5.1230639219284058e-01</leafValues></_></weakClassifiers></_>
    <!-- stage 4 -->
    <_>
      <maxWeakCount>3</maxWeakCount>
      <stageThreshold>-5.6765341758728027e-01</stageThreshold>
      <weakClassifiers>
        <_>
          <internalNodes>
            0 -1 40 -4.6770711196586490e-04</internalNodes>
          <leafValues>
            6.2962961196899414e-01 -7.3913043737411499e-01</leafValues></_>
        <_>
          <internalNodes>
            0 -1 20 -4.4160988181829453e-03</internalNodes>
          <leafValues>
            7.1528470516204834e-01 -5.3027987480163574e-01</leafValues></_>
        <_>
          <internalNodes>
            0 -1 45 3.1891773687675595e-04</internalNodes>
          <leafValues>
            -5.4380768537521362e-01 7.1705853939056396e-01</leafValues></_></weakClassifiers></_>
    <!-- stage 5 -->
    <_>
      <maxWeakCount>4</maxWeakCount>
      <stageThreshold>-1.1292163133621216e+00</stageThreshold>
      <weakClassifiers>
        <_>
          <internalNodes>
            0 -1 53 -6.5507767722010612e-03</internalNodes>
          <leafValues>
            7.4683547019958496e-01 -4.8760330677032471e-01</leafValues></_>
        <_>
          <internalNodes>
            0 -1 26 -1.1990178609266877e-03</internalNodes>
          <leafValues>
            5.8057749271392822e-01 -7.1556502580642700e-01</leafValues></_>
        <_>
          <internalNodes>
            0 -1 19 4.9134029541164637e-04</internalNodes>
          <leafValues>
            -7.5415557622909546e-01 4.6426793932914734e-01</leafValues></_>
        <_>
          <internalNodes>
            0 -1 54 -5.3458679467439651e-03</internalNodes>
          <leafValues>
            7.7547168731689453e-01 -4.6803498268127441e-01</leafValues></_></weakClassifiers></_>
    <!-- stage 6 -->
    <_>
      <maxWeakCount>3</maxWeakCount>
      <stageThreshold>-2.2980511188507080e-01</stageThreshold>
      <weakClassifiers>
        <_>
          <internalNodes>
            0 -1 38 -3.8730984670110047e-05</internalNodes>
          <leafValues>
            4.3703705072402954e-01 -9.0769231319427490e-01</leafValues></_>
        <_>
          <internalNodes>
            0 -1 15 -3.4702729433774948e-02</internalNodes>
          <leafValues>
            -9.5207971334457397e-01 3.7578696012496948e-01</leafValues></_>
        <_>
          <internalNodes>
            0 -1 5 3.7400655448436737e-02</internalNodes>
          <leafValues>
            3.0210024118423462e-01 -9.2827624082565308e-01</leafValues></_></weakClassifiers></_>
    <!-- stage 7 -->
    <_>
      <maxWeakCount>6</maxWeakCount>
      <stageThreshold>-1.2525973320007324e+00</stageThreshold>
      <weakClassifiers>
        <_>
          <internalNodes>
            0 -1 42 -3.8380332291126251e-02</internalNodes>
          <leafValues>
            7.3809522390365601e-01 -5.3448277711868286e-01</leafValues></_>
        <_>
          <internalNodes>
            0 -1 43 2.4936720728874207e-03</internalNodes>
          <leafValues>
            -5.5196106433868408e-01 6.0751986503601074e-01</leafValues></_>
        <_>
          <internalNodes>
            0 -1 3 -9.4451103359460831e-03</internalNodes>
          <leafValues>
            7.5192874670028687e-01 -4.5479729771614075e-01</leafValues></_>
        <_>
          <internalNodes>
            0 -1 30 -3.6440927535295486e-02</internalNodes>
          <leafValues>
            -9.6889269351959229e-01 4.3064212799072266e-01</leafValues></_>
        <_>
          <internalNodes>
            0 -1 50 -1.1899569071829319e-03</internalNodes>
          <leafValues>
            5.9465837478637695e-01 -5.9454494714736938e-01</leafValues></_>
        <_>
          <internalNodes>
            0 -1 32 -9.6072237938642502e-03</internalNodes>
          <leafValues>
            4.5254659652709961e-01 -9.3066960573196411e-01</leafValues></_></weakClassifiers></_>
    <!-- stage 8 -->
    <_>
      <maxWeakCount>5</maxWeakCount>
      <stageThreshold>-9.9923276901245117e-01</stageThreshold>
      <weakClassifiers>
        <_>
          <internalNodes>
            0 -1 31 -1.3175290822982788e-01</internalNodes>
          <leafValues>
            3.6111110448837280e-01 -9.2857140302658081e-01</leafValues></_>
        <_>
          <internalNodes>
            0 -1 4 6.0824770480394363e-03</internalNodes>
          <leafValues>
            -6.0874354839324951e-01 5.4049086570739746e-01</leafValues></_>
        <_>
          <internalNodes>
            0 -1 48 -5.5627361871302128e-03</internalNodes>
          <leafValues>
            6.9376075267791748e-01 -4.2303466796875000e-01</leafValues></_>
        <_>
          <internalNodes>
            0 -1 21 -2.1352977491915226e-03</internalNodes>
          <leafValues>
            6.0224372148513794e-01 -4.7970405220985413e-01</leafValues></_>
        <_>
          <internalNodes>
            0 -1 29 -2.0091716200113297e-02</internalNodes>
          <leafValues>
            -9.1864258050918579e-01 3.2402554154396057e-01</leafValues></_></weakClassifiers></_>
    <!-- stage 9 -->
    <_>
      <maxWeakCount>4</maxWeakCount>
      <stageThreshold>-4.5232456922531128e-01</stageThreshold>
      <weakClassifiers>
        <_>
          <internalNodes>
            0 -1 27 1.8287673592567444e-02</internalNodes>
          <leafValues>
            -5.7407408952713013e-01 6.7391306161880493e-01</leafValues></_>
        <_>
          <internalNodes>
            0 -1 0 6.3608549535274506e-02</internalNodes>
          <leafValues>
            -4.9829557538032532e-01 6.7460262775421143e-01</leafValues></_>
        <_>
          <internalNodes>
            0 -1 37 6.5346229821443558e-03</internalNodes>
          <leafValues>
            3.3331748843193054e-01 -9.8249554634094238e-01</leafValues></_>
        <_>
          <internalNodes>
            0 -1 18 -2.0704718306660652e-02</internalNodes>
          <leafValues>
            -8.8617062568664551e-01 3.2212489843368530e-01</leafValues></_></weakClassifiers></_>
    <!-- stage 10 -->
    <_>
      <maxWeakCount>4</maxWeakCount>
      <stageThreshold>-1.2723240256309509e-01</stageThreshold>
      <weakClassifiers>
        <_>
          <internalNodes>
            0 -1 46 1.5585845103487372e-03</internalNodes>
          <leafValues>
            -5.1785713434219360e-01 6.5909093618392944e-01</leafValues></_>
        <_>
          <internalNodes>
            0 -1 35 -1.2655020691454411e-02</internalNodes>
          <leafValues>
            -9.0441751480102539e-01 3.5674989223480225e-01</leafValues></_>
        <_>
          <internalNodes>
            0 -1 44 -8.2832050975412130e-04</internalNodes>
          <leafValues>
            8.9558768272399902e-01 -3.5614061355590820e-01</leafValues></_>
        <_>
          <internalNodes>
            0 -1 23 -5.7405035477131605e-04</internalNodes>
          <leafValues>
            4.9076268076896667e-01 -7.7749347686767578e-01</leafValues></_></weakClassifiers></_>
    <!-- stage 11 -->
    <_>
      <maxWeakCount>4</maxWeakCount>
      <stageThreshold>-3.3517158031463623e-01</stageThreshold>
      <weakClassifiers>
        <_>
          <internalNodes>
            0 -1 49 -2.3453873582184315e-03</internalNodes>
          <leafValues>
            6.1363637447357178e-01 -4.8214286565780640e-01</leafValues></_>
        <_>
          <internalNodes>
            0 -1 13 1.0587404482066631e-02</internalNodes>
          <leafValues>
            3.1287601590156555e-01 -9.7207707166671753e-01</leafValues></_>
        <_>
          <internalNodes>
            0 -1 33 -3.8623284548521042e-02</internalNodes>
          <leafValues>
            8.2056599855422974e-01 -4.0210536122322083e-01</leafValues></_>
        <_>
          <internalNodes>
            0 -1 47 -1.7439164221286774e-03</internalNodes>
          <leafValues>
            -8.8969886302947998e-01 4.2537450790405273e-01</leafValues></_></weakClassifiers></_>
    <!-- stage 12 -->
    <_>
      <maxWeakCount>4</maxWeakCount>
      <stageThreshold>-5.8845216035842896e-01</stageThreshold>
      <weakClassifiers>
        <_>
          <internalNodes>
            0 -1 1 7.4301898479461670e-02</internalNodes>
          <leafValues>
            -4.6666666865348816e-01 6.9999998807907104e-01</leafValues></_>
        <_>
          <internalNodes>
            0 -1 10 -1.8187269568443298e-02</internalNodes>
          <leafValues>
            -1. 3.0972728133201599e-01</leafValues></_>
        <_>
          <internalNodes>
            0 -1 12 -1.5102565521374345e-04</internalNodes>
          <leafValues>
            4.4565722346305847e-01 -6.6286736726760864e-01</leafValues></_>
        <_>
          <internalNodes>
            0 -1 36 7.7293636277318001e-03</internalNodes>
          <leafValues>
            3.0943468213081360e-01 -9.3531203269958496e-01</leafValues></_></weakClassifiers></_>
    <!-- stage 13 -->
    <_>
      <maxWeakCount>5</maxWeakCount>
      <stageThreshold>-8.7973868846893311e-01</stageThreshold>
      <weakClassifiers>
        <_>
          <internalNodes>
            0 -1 16 -2.2920102346688509e-03</internalNodes>
          <leafValues>
            6.2105262279510498e-01 -5.6190478801727295e-01</leafValues></_>
        <_>
          <internalNodes>
            0 -1 52 -7.2256870567798615e-02</internalNodes>
          <leafValues>
            7.3839932680130005e-01 -4.8457276821136475e-01</leafValues></_>
        <_>
          <internalNodes>
            0 -1 34 4.2251516133546829e-03</internalNodes>
          <leafValues>
            3.6637419462203979e-01 -8.8290071487426758e-01</leafValues></_>
        <_>
          <internalNodes>
            0 -1 22 -1.3728707563132048e-03</internalNodes>
          <leafValues>
            6.2823736667633057e-01 -5.4389643669128418e-01</leafValues></_>
        <_>
          <internalNodes>
            0 -1 7 -1.7746303230524063e-02</internalNodes>
          <leafValues>
            -7.6074272394180298e-01 3.4426110982894897e-01</leafValues></_></weakClassifiers></_>
    <!-- stage 14 -->
    <_>
      <maxWeakCount>5</maxWeakCount>
      <stageThreshold>-3.3017358183860779e-01</stageThreshold>
      <weakClassifiers>
        <_>
          <internalNodes>
            0 -1 17 5.0000585615634918e-03</internalNodes>
          <leafValues>
            -6.0465115308761597e-01 4.5614033937454224e-01</leafValues></_>
        <_>
          <internalNodes>
            0 -1 28 -4.5936883543618023e-04</internalNodes>
          <leafValues>
            3.3007863163948059e-01 -7.8708356618881226e-01</leafValues></_>
        <_>
          <internalNodes>
            0 -1 9 -1.0625630617141724e-02</internalNodes>
          <leafValues>
            -9.7043079137802124e-01 2.5782963633537292e-01</leafValues></_>
        <_>
          <internalNodes>
            0 -1 24 1.3394080102443695e-02</internalNodes>
          <leafValues>
            3.2723638415336609e-01 -7.5121706724166870e-01</leafValues></_>
        <_>
          <internalNodes>
            0 -1 56 -8.0135621828958392e-04</internalNodes>
          <leafValues>
            7.1665459871292114e-01 -4.7319814562797546e-01</leafValues></_></weakClassifiers></_></stages>
  <features>
    <_>
      <rects>
        <_>
          0 2 10 11 -1.</_>
        <_>
          5 2 5 11 2.</_></rects>
      <tilted>0</tilted></_>
    <_>
      <rects>
        <_>
          0 5 8 17 -1.</_>
        <_>
          4 5 4 17 2.</_></rects>
      <tilted>0</tilted></_>
    <_>
      <rects>
        <_>
          0 7 14 2 -1.</_>
        <_>
          7 7 7 2 2.</_></rects>
      <tilted>0</tilted></_>
    <_>
      <rects>
        <_>
          0 20 10 4 -1.</_>
        <_>
          0 22 10 2 2.</_></rects>
      <tilted>0</tilted></_>
    <_>
      <rects>
        <_>
          1 9 6 4 -1.</_>
        <_>
          4 9 3 4 2.</_></rects>
      <tilted>0</tilted></_>
    <_>
      <rects>
        <_>
          1 9 21 12 -1.</_>
        <_>
          1 15 21 6 2.</_></rects>
      <tilted>0</tilted></_>
    <_>
      <rects>
        <_>
          2 6 6 11 -1.</_>
        <_>
          5 6 3 11 2.</_></rects>
      <tilted>0</tilted></_>
    <_>
      <rects>
        <_>
          2 10 16 4 -1.</_>
        <_>
          2 10 8 2 2.</_>
        <_>
          10 12 8 2 2.</_></rects>
      <tilted>0</tilted></_>
    <_>
      <rects>
        <_>
          2 13 6 2 -1.</_>
        <_>
          5 13 3 2 2.</_></rects>
      <tilted>0</tilted></_>
    <_>
      <rects>
        <_>
          2 18 18 4 -1.</_>
        <_>
          11 18 9 4 2.</_></rects>
      <tilted>0</tilted></_>
    <_>
      <rects>
        <_>
          3 12 9 6 -1.</_>
        <_>
          3 15 9 3 2.</_></rects>
      <tilted>0</tilted></_>
    <_>
      <rects>
        <_>
          3 17 12 5 -1.</_>
        <_>
          9 17 6 5 2.</_></rects>
      <tilted>0</tilted></_>
    <_>
      <rects>
        <_>
          4 12 2 4 -1.</_>
        <_>
          4 14 2 2 2.</_></rects>
      <tilted>0</tilted></_>
    <_>
      <rects>
        <_>
          4 12 8 6 -1.</_>
        <_>
          4 15 8 3 2.</_></rects>
      <tilted>0</tilted></_>
    <_>
      <rects>
        <_>
          5 9 3 8 -1.</_>
        <_>
          5 13 3 4 2.</_></rects>
      <tilted>0</tilted></_>
    <_>
      <rects>
        <_>
          5 9 14 6 -1.</_>
        <_>
          5 9 7 3 2.</_>
        <_>
          12 12 7 3 2.</_></rects>
      <tilted>0</tilted></_>
    <_>
      <rects>
        <_>
          5 13 8 2 -1.</_>
        <_>
          5 14 8 1 2.</_></rects>
      <tilted>0</tilted></_>
    <_>
      <rects>
        <_>
          5 14 12 4 -1.</_>
        <_>
          5 16 12 2 2.</_></rects>
      <tilted>0</tilted></_>
    <_>
      <rects>
        <_>
          5 17 14 7 -1.</_>
        <_>
          12 17 7 7 2.</_></rects>
      <tilted>0</tilted></_>
    <_>
      <rects>
        <_>
          6 2 3 6 -1.</_>
        <_>
          6 5 3 3 2.</_></rects>
      <tilted>0</tilted></_>
    <_>
      <rects>
        <_>
          6 7 3 4 -1.</_>
        <_>
          6 9 3 2 2.</_></rects>
      <tilted>0</tilted></_>
    <_>
      <rects>
        <_>
          7 2 6 6 -1.</_>
        <_>
          7 2 3 3 2.</_>
        <_>
          10 5 3 3 2.</_></rects>
      <tilted>0</tilted></_>
    <_>
      <rects>
        <_>
          7 3 2 17 -1.</_>
        <_>
          8 3 1 17 2.</_></rects>
      <tilted>0</tilted></_>
    <_>
      <rects>
        <_>
          7 9 3 2 -1.</_>
        <_>
          7 10 3 1 2.</_></rects>
      <tilted>0</tilted></_>
    <_>
      <rects>
        <_>
          7 9 10 11 -1.</_>
        <_>
          12 9 5 11 2.</_></rects>
      <tilted>0</tilted></_>
    <_>
      <rects>
        <_>
          7 10 10 4 -1.</_>
        <_>
          7 10 5 2 2.</_>
        <_>
          12 12 5 2 2.</_></rects>
      <tilted>0</tilted></_>
    <_>
      <rects>
        <_>
          7 11 8 2 -1.</_>
        <_>
          7 11 4 1 2.</_>
        <_>
          11 12 4 1 2.</_></rects>
      <tilted>0</tilted></_>
    <_>
      <rects>
        <_>
          7 14 14 6 -1.</_>
        <_>
          7 17 14 3 2.</_></rects>
      <tilted>0</tilted></_>
    <_>
      <rects>
        <_>
          8 6 1 18 -1.</_>
        <_>
          8 15 1 9 2.</_></rects>
      <tilted>0</tilted></_>
    <_>
      <rects>
        <_>
          8 10 10 9 -1.</_>
        <_>
          13 10 5 9 2.</_></rects>
      <tilted>0</tilted></_>
    <_>
      <rects>
        <_>
          8 17 6 2 -1.</_>
        <_>
          10 17 2 2 2.</_></rects>
      <tilted>0</tilted></_>
    <_>
      <rects>
        <_>
          9 7 6 12 -1.</_>
        <_>
          9 11 6 4 2.</_></rects>
      <tilted>0</tilted></_>
    <_>
      <rects>
        <_>
          9 10 13 6 -1.</_>
        <_>
          9 13 13 3 2.</_></rects>
      <tilted>0</tilted></_>
    <_>
      <rects>
        <_>
          10 20 14 4 -1.</_>
        <_>
          10 22 14 2 2.</_></rects>
      <tilted>0</tilted></_>
    <_>
      <rects>
        <_>
          11 4 6 18 -1.</_>
        <_>
          11 4 3 9 2.</_>
        <_>
          14 13 3 9 2.</_></rects>
      <tilted>0</tilted></_>
    <_>
      <rects>
        <_>
          11 6 6 13 -1.</_>
        <_>
          14 6 3 13 2.</_></rects>
      <tilted>0</tilted></_>
    <_>
      <rects>
        <_>
          11 7 6 5 -1.</_>
        <_>
          14 7 3 5 2.</_></rects>
      <tilted>0</tilted></_>
    <_>
      <rects>
        <_>
          11 9 8 10 -1.</_>
        <_>
          15 9 4 10 2.</_></rects>
      <tilted>0</tilted></_>
    <_>
      <rects>
        <_>
          11 14 6 3 -1.</_>
        <_>
          14 14 3 3 2.</_></rects>
      <tilted>0</tilted></_>
    <_>
      <rects>
        <_>
          12 7 5 12 -1.</_>
        <_>
          12 11 5 4 2.</_></rects>
      <tilted>0</tilted></_>
    <_>
      <rects>
        <_>
          13 13 4 2 -1.</_>
        <_>
          13 14 4 1 2.</_></rects>
      <tilted>0</tilted></_>
    <_>
      <rects>
        <_>
          13 14 6 6 -1.</_>
        <_>
          13 17 6 3 2.</_></rects>
      <tilted>0</tilted></_>
    <_>
      <rects>
        <_>
          14 3 10 7 -1.</_>
        <_>
          19 3 5 7 2.</_></rects>
      <tilted>0</tilted></_>
    <_>
      <rects>
        <_>
          14 4 4 5 -1.</_>
        <_>
          16 4 2 5 2.</_></rects>
      <tilted>0</tilted></_>
    <_>
      <rects>
        <_>
          14 11 2 2 -1.</_>
        <_>
          14 11 1 1 2.</_>
        <_>
          15 12 1 1 2.</_></rects>
      <tilted>0</tilted></_>
    <_>
      <rects>
        <_>
          14 17 2 2 -1.</_>
        <_>
          14 17 1 1 2.</_>
        <_>
          15 18 1 1 2.</_></rects>
      <tilted>0</tilted></_>
    <_>
      <rects>
        <_>
          15 3 2 11 -1.</_>
        <_>
          16 3 1 11 2.</_></rects>
      <tilted>0</tilted></_>
    <_>
      <rects>
        <_>
          15 4 6 4 -1.</_>
        <_>
          15 6 6 2 2.</_></rects>
      <tilted>0</tilted></_>
    <_>
      <rects>
        <_>
          15 6 2 6 -1.</_>
        <_>
          15 9 2 3 2.</_></rects>
      <tilted>0</tilted></_>
    <_>
      <rects>
        <_>
          15 8 2 4 -1.</_>
        <_>
          15 10 2 2 2.</_></rects>
      <tilted>0</tilted></_>
    <_>
      <rects>
        <_>
          15 10 2 7 -1.</_>
        <_>
          16 10 1 7 2.</_></rects>
      <tilted>0</tilted></_>
    <_>
      <rects>
        <_>
          15 10 6 6 -1.</_>
        <_>
          15 13 6 3 2.</_></rects>
      <tilted>0</tilted></_>
    <_>
      <rects>
        <_>
          16 6 8 18 -1.</_>
        <_>
          20 6 4 18 2.</_></rects>
      <tilted>0</tilted></_>
    <_>
      <rects>
        <_>
          16 7 8 1 -1.</_>
        <_>
          20 7 4 1 2.</_></rects>
      <tilted>0</tilted></_>
    <_>
      <rects>
        <_>
          16 18 3 4 -1.</_>
        <_>
          16 20 3 2 2.</_></rects>
      <tilted>0</tilted></_>
    <_>
      <rects>
        <_>
          18 9 6 10 -1.</_>
        <_>
          21 9 3 10 2.</_></rects>
      <tilted>0</tilted></_>
    <_>
      <rects>
        <_>
          19 17 2 2 -1.</_>
        <_>
          19 17 1 1 2.</_>
        <_>
          20 18 1 1 2.</_></rects>
      <tilted>0</tilted></_></features></cascade>
</opencv_storage>
